1,0.21282794719930803,-0.001686137419251431,-0.05791813783811535,0.2026229085796106,0.06986079953249004,-0.017314874129590388,-0.36405272581918713,0.051032369868172694,0.007257677595988937,0.16704647033546516,-0.39970922105263884,0.19807778690514216,0.00800206549737114,0.25089100262579733,-0.4478640976283121,-0.24176950811717746,0.19807778690514216,0.0,0.2571576162205582,-0.6638614926205033,-0.024036661222365717,-0.2972545283768475
2,0.3852109452685826,0.08511333760068274,0.027843665682803335,-0.004012474037620391,0.20436716258081208,-0.011805883462678128,0.048233895118502526,0.06023546188732988,0.04134356014266788,0.06928343835565792,-0.6332125132284473,0.12314084663918444,0.0,-0.03665100147107256,-0.38868558265360803,-0.2617333373872867,0.12314084663918444,0.0,0.09270675704224846,-0.7526193438749078,-0.027157334679303043,-1.408752625140668
4,0.8123777007636497,0.040247660540577296,0.08499753170834072,0.31826259733553713,0.3011146649586375,0.06193479360397198,0.03505798125705257,0.1257183555939506,0.07271118880823566,-0.08664821315729127,-0.4962711805044613,-0.0016212330236956235,0.0,-0.01811229787249257,-0.3786527694827827,-0.18453309328278014,-0.0016212330236956235,0.0,0.2917310476746105,-0.8397967150591381,-0.03323249325352935,-1.6310492890423558
8,0.5197949741942303,0.011159363656382868,-0.12379777949015316,0.4963992491589945,0.1044183924810604,-0.1879590867675939,0.12018197703336371,0.1787940320278028,0.083819631678361,-0.13609631128360236,-0.5248052263292559,-0.002300234428703453,0.0,-0.03608476009969678,-0.35841413098868524,-0.2641024120957756,-0.002300234428703453,0.0,0.3308146506122869,-0.9720215572719766,-0.01739439652447164,-0.9253543792752663
16,0.6197086974996138,0.05572851961264584,-0.09170261998961021,0.5542373913947745,0.13999015320847516,-0.16231314382025894,0.04111181715456283,0.263967519856645,0.10602946610526931,-0.13726975103034483,-0.6987520230826869,-0.0013583586148234012,0.0,-0.06299860692447452,-0.45598351920251423,-0.315681289371215,-0.0013583586148234012,0.0,-0.19866756658098114,-0.6228441468576834,-0.013151702059541382,-1.7852338175547804
32,0.5815878932408839,0.03072503091335583,-0.05415140195571562,0.6192846037243699,0.11275697610286778,-0.12135418224298795,-0.14321341676299648,-0.27505098435023295,0.1073007206715944,-0.1297589387060983,-0.7162864310820469,-0.0012532702097490858,0.0,-0.06921471746488837,-0.4529964830556244,-0.32258089905788484,-0.0012532702097490858,0.0,-0.2118498649136577,-0.6179937612873001,-0.014948473377440515,-2.2409496567353973
64,0.2128303444736464,-0.013712803253825926,0.1776608928422047,0.9066981112110357,-0.17048924201749527,-0.15353189715942026,-0.07497899428432094,-0.37941072001753634,0.13609887991563327,-0.2087615231191738,-0.8643517464402257,-0.0012483471586029946,0.0,-0.02934154739541177,-0.5244546035540957,-0.5180687714512873,-0.0012483471586029946,0.0,-0.13321660423708218,-0.9386483181637086,0.0,-2.5200093703121107
128,0.2754755854088572,0.059835999733698304,0.23491534532435074,0.8621912856546101,-0.023584999549961197,0.17124658172912155,-0.171956667924104,-0.16809699970476225,0.139917632985304,-0.17532789343255514,-0.9278955033723785,-0.001180421154560477,0.0,0.0,-0.5673077969965682,-0.5347351786538084,-0.001180421154560477,0.0,0.0,-1.102042975650372,0.0,-3.0323052691553825
129,-0.15641308845590024,-0.02212595151763443,-0.5314626051411477,0.2691507042183005,0.06315757753435736,-0.02773673900737701,-0.38686950854924473,-0.38249776662745233,0.09092729074909842,0.0,-0.7169440507403863,0.0,0.0,-0.17688194693655496,-0.19576278351691764,-0.3442993202869175,0.0,0.0,-0.19898665330005236,-0.5179573974403384,0.0,-1.3830228284264976
65,0.3298239666282425,-0.037580257525716566,-0.012102495580199553,0.3705480596384947,0.04694238057513168,0.15575740562282314,-0.3357627035376308,0.07791669213838057,0.10697940327725852,-0.04945011878866836,-0.79406172566984,0.0,0.0,-0.12418115407891217,-0.31301631755057513,-0.40631437282902366,0.0,0.0,-0.38019550437696925,-0.4311932518528783,-0.03212308822866291,-2.0718115339087992
130,0.5843341143570271,-0.01803525431532048,0.001619415505170182,0.34006879747379837,0.3464477567171704,0.17808646604077735,-0.44742577421570945,0.256675414291451,0.10516004120695377,0.0,-0.829166527428813,0.0,0.0,0.0,-0.25487161956260024,-0.5742949078662029,0.0,0.0,-0.2792898462372962,-0.5498766811915166,0.0,-2.4218672538762487
131,0.053028605792872864,0.030244113649996122,-0.00019941887357897482,0.39341246348007197,-0.0839584094686682,-0.09777930077670076,-0.26150321294526335,0.014959848448814298,0.10747444853328697,-0.08107634817411279,-0.7663388321061643,0.0,0.0,-0.1872839423789367,-0.39068253974939543,-0.26944869815193695,0.0,0.0,-0.40446591862360953,-0.3962415695741337,-0.04670769208252471,-1.7048217990312038
33,-0.060042140259180525,0.04795050426494898,-0.28851614854596674,0.24092154258723963,0.2351583647664349,-0.055477017900868314,0.8730148232810447,0.3266934388672728,0.12038326645173336,-0.16574138164256144,-0.7834573240509968,0.0,0.0,0.0,-0.43702569643036787,-0.5121730092631858,0.0,0.0,0.0,-0.9491987056935579,0.0,-0.8227910101303996
66,-0.5248082246532859,-0.034177462955959206,0.2552334064640238,0.12192525112233833,-0.21680404848012,0.21286399796005098,0.9730802784608191,-0.3209753870399925,0.08923800562159055,-0.20423168261960647,-0.4993926825545151,0.0,0.0,0.0,-0.42334314274049245,-0.28028122243362696,0.0,0.0,0.0,-0.7036243651741219,0.0,-1.6995254115295648
133,-0.3224697092921451,0.04100297097623528,-0.13794310474386856,0.19169296192756546,-0.04371420354359102,-0.19490628070477498,-0.2755339696719416,-0.004103115476684159,0.0647597104914378,0.0,-0.510617756033456,0.0,0.0,0.0,-0.13205536104430246,-0.3785623949891581,0.0,0.0,0.0,-0.510617756033456,0.0,-1.4094241191758379
67,0.20978567644932075,4.032856079753091,1.872345875290444,-0.08070410843277495,7.640160146389156,-3.503342777116688,0.11600177253100963,0.4309532143864109,-0.02726430143820804,0.0,0.2149737284887657,0.0,0.0,0.0,-2.187410438583626,2.40238416707239,0.0,0.0,0.0,0.2149737284887657,0.0,0.1135956821668258
17,-0.2119614326963545,-6.352936263940309,1.4194305014905086,0.07205403864583636,1.1516653903447092,4.227602960279237,-0.10356841012496101,-0.9765970347261189,0.02434204488011632,0.0,-0.1919323023470591,0.0,0.0,1.6584019753641897,0.20880873305788608,-2.059143010769134,0.0,0.0,-0.13788532162402292,-0.054046980723036084,0.0,-0.12787157429227114
9,-0.006248088054762594,-0.0673051171391458,0.06921104194759925,0.11690385582288264,0.5546212728462558,0.1422806988443977,-0.16888047631825842,-0.001506701653050354,0.08937615789296607,-0.03972400494158796,-0.7143595001366371,0.0,0.0,-0.03164763694938431,-0.2645009312723789,-0.45793493685645403,0.0,0.0,-0.2656032306582591,-0.4282515625087438,-0.06022871191122449,-1.3846153250492481
18,0.6662062906428445,-0.33039775490563567,0.669638414614355,0.008549959176554043,1.0804186689583664,0.18526889360510557,0.06256040122487704,-0.05358273081138118,0.11341090712003167,-0.1610690323485804,-0.733153972416178,0.0,0.0,-0.05324472064577008,0.04349951930296538,-0.8844778034219558,0.0,0.0,-0.12809333153720873,-0.4497089465514418,-0.31642072667610427,-0.7100238747085983
36,0.4379898227401593,-0.1951796569616621,0.4940989021624365,-0.044628644793738945,0.8449058956770861,0.08736225896952521,0.04861039835052229,-0.08801497303828744,0.1243628408330959,-0.2032114015317357,-0.7773654762561444,0.0,0.0,-0.0690899475809413,-0.10081346140907725,-0.8106734687978622,0.0,0.0,-0.1927311764255307,-0.5056444942158345,-0.2822012071465096,-2.3790662922372636
72,-0.3138120779052751,-1.229031136268759,0.12267350146529034,0.29795485306414,2.794956473331601,0.5636426256898491,-0.9402005803020245,0.4096558471966931,0.2625264966544763,-0.23589744602202106,-1.8340730588454615,0.0,0.0,-0.027013744685152413,-1.097329469268432,-0.945627290913897,0.0,0.0,-0.531006840831877,-1.538963664035578,0.0,-1.8119385913274102
73,0.002640451518088861,0.04688794467873622,0.06971864860314698,0.2899168940554177,-0.019097934917020654,-0.19671584501011044,0.19709793500675726,-0.013367964800373097,0.09794274102092411,0.0,-0.7722595153738834,0.0,0.0,0.0,-0.3088685759517591,-0.46339093942211673,0.0,0.0,0.13174541770865633,-0.42293539171778344,-0.4810695413647543,-1.510740250110011
146,-0.29130090842369544,-0.04667354029018127,-0.16708581674923914,0.28069889085902544,0.030995265555432687,-0.024370767159724867,0.06466692761109236,-0.016315325308687262,0.09482861929050267,0.0,-0.7477052695636951,0.0,0.0,0.0,-0.20493163680177537,-0.5427736327619169,0.0,0.0,0.0,-0.49190966672218145,-0.2557956028415112,-1.5442492889376684
147,0.9884873127027575,-0.408171339306003,0.2617878418253635,0.32456585285967193,-0.8370450063667971,0.43849954618415005,-0.46652165504217696,-0.45496547589884023,0.10964821272124374,0.0,-0.8645548892656494,0.0,0.0,0.0,-2.0644959643658796,1.19994107510024,0.0,0.0,-0.022190271817867906,0.07756318632862773,-0.919927803776403,-1.278857039358018
37,3.4863860469429078,0.19351781529855164,4.032112755973247,-0.05719373872711722,-4.4281174319051955,-0.3520270208246747,0.08220864090887586,1.8209092073673916,-0.019321783776759378,0.0,0.1523485173077923,0.0,0.0,0.0,-2.6279470870127053,2.7802956043204836,0.0,0.0,0.0,0.1523485173077923,0.0,0.12186540581774596
19,-0.35142081202195735,0.0165506963468169,-0.1365080725427875,0.05411286313337843,-0.08158032598799207,0.016848451650576832,-0.023006937980675272,0.025887256374034766,-0.044921759643206396,0.0066628128086405865,-0.40267952170087223,0.0,0.0,0.0,-0.12110909722770354,-0.27490761166453265,0.0,0.0,0.0,-0.3960167088922356,0.0,-0.8198597982797223
38,-0.2630029148105492,-0.0009092969026567902,-0.083106979190068,0.04531557778223426,-0.1685576934133044,0.026202114732146294,-0.03042034858892497,-0.18180882250510644,0.05221794298669337,0.0,-0.411728351936869,0.0,0.0,0.0,-0.19065024936740138,-0.22107810256946583,0.0,0.0,0.0,-0.411728351936869,0.0,-1.187942882941997
76,0.12203966938170838,0.26568379668417313,0.19385594829755273,0.19709266438030248,-0.20731256565800862,0.3925786717984327,-0.28329534722534366,-0.15285224910527714,0.06658389414462378,0.0,-0.525001090308955,0.0,0.0,0.0,-0.13881840876636264,-0.3861826815425913,0.0,0.0,0.0,-0.525001090308955,0.0,-1.2143867144657106
152,0.3441967382693358,-0.16281964833228943,-0.35943612821041765,0.16242960418698588,-0.2708599477092402,-0.3640527370952388,-0.23347165792551855,-0.1406868212348943,0.05487365856636295,0.0,-0.432668154163643,0.0,0.0,0.0,0.01717711270053138,-0.4498452668641734,0.0,0.0,0.0,-0.432668154163643,0.0,-2.063687695189703
153,-1.2040548101556305,-0.6989262942975203,0.8881112669630421,0.11032766779269707,0.4029440607464635,-0.6769191393807776,-0.15858182776191637,1.8850823571432653,0.03727204042133999,0.0,-0.2938828092081911,0.0,0.0,0.0,-0.4618474506841838,0.16796464147599308,0.0,0.0,0.0,-0.2938828092081911,0.0,-0.5233158634679443
77,-0.02648199279923507,-0.19393456845892548,0.051728045463116205,-0.08977962707439656,-0.10267351811877871,-0.2631550341628625,0.19392781688813457,1.5063689127964792,0.03361155432591584,0.0,-0.2650205863561493,0.0,0.0,0.0,-0.20074174469612124,-0.06427884166003359,0.0,0.0,0.0,-0.2650205863561493,0.0,-1.0622838455915082
154,1.2981381571879358,0.11941549791661478,-0.08185459640788151,-0.12546806345790612,-0.4568646368724396,0.4049228232355737,-0.3320878853925343,0.16593130276468254,0.07805177467351897,0.0,-0.6154231038986799,0.0,0.0,0.0,-0.44132663623729007,-0.17409646766138986,0.0,0.0,0.0,-0.6154231038986799,0.0,-1.6703742751142217
155,-0.5890481023616257,0.25023829137644793,0.02562047340767677,0.06796512307114498,0.19487682158218392,0.028800691815468668,0.3384291122452682,0.8518778089059704,0.02296068488557965,0.0,-0.18104054672721462,0.0,0.0,0.0,0.26004797648136896,-0.4410885232085815,0.0,0.0,0.0,-0.18104054672721462,0.0,-0.7463830548991254
39,0.3491598346363821,2.6743987401102096,3.1208459125752106,1.9238894334223118,2.4819479800812023,5.756567210903056,-1.4666351991911262,3.2737796318230665,-4.433412894929922,0.5984464463212849,-2.4853270868068478,0.0,0.0,0.0,-1.337876330897374,-0.5490043095881763,0.0,0.0,0.0,-1.8868806404855447,0.0,0.41573644932497045
5,0.1586980263718982,0.08289894273470351,-0.030432518922713717,0.06081019263936489,0.10647098590432799,-0.12474859959391435,0.22369755528313132,-0.004811259658259832,-0.0958663612842722,0.09586729773892069,-0.4941503038089587,0.1915606991498587,0.0,-0.13315396439607613,-0.22631493846719644,-0.23037480235662242,0.1915606991498587,0.0,-0.11447459036150734,-0.47536911485838734,0.0,-0.8352887988485167
10,0.07270797084414994,-0.03146491485823973,0.02443964378587533,0.05965993638934827,0.011125254141168408,0.18797155051343145,0.06775244026382678,0.03225896031681471,-0.1665366927451241,-0.10453138038574122,-0.6079398840855489,0.08765427960183318,0.0,-0.2009713861401309,-0.278407963485432,-0.3207461944475674,0.08765427960183318,0.0,-0.3305774995534209,-0.4695480445197066,0.0,-0.9277858700049487
20,-0.05164395459463824,-0.0532649602521048,-0.0747637756371366,0.17600033539879056,0.05146570973064958,0.0153358585872737,0.06081772342089956,0.031479831104266116,-0.5258047678120612,-0.30626243091286426,-0.4973313823637356,-0.08092637608527731,0.0,-0.07890712127505564,-0.11991221003758797,-0.5238481058786812,-0.08092637608527731,0.0,-0.44271547561498703,-0.27995196157633817,0.0,-1.3823269892805277
40,1.1314652562164143,1.0327231768143623,-1.4384400048160852,0.10210835195584166,0.9700982235570662,0.04413933651140851,-0.6042923506988391,-0.08167288492616498,-1.3023427523446214,0.042881320131125646,-0.3930080947493848,-0.2141910506067265,0.0,0.0,0.7435271850741946,-0.8794629090857313,-0.2141910506067265,0.0,1.108135182693538,-1.244070906705088,0.0,-0.8221386555116155
80,0.4132331918983818,-0.09042599178800652,-0.743179503272355,0.1544006547789377,0.6837095867036419,0.06547048906825702,0.7986926015441136,0.1767544575753314,-0.8196005506876927,-0.755670356738872,-0.4559894123634518,0.1261208125628046,0.0,0.0,-0.13969691104818413,-1.1980836706169484,0.1261208125628046,0.0,-0.5449756985254718,-0.7928048831396594,0.0,-1.6377408606037502
160,-0.37677339012818506,0.01888997190639905,-0.3703301694678934,0.25181754547072543,0.31853285638927764,0.03351621575279943,0.7760503750996438,0.2180954014513849,-0.8222904248727495,-0.7727819396587717,-0.5221101327904938,0.1177125807556036,0.0,0.0,-0.12894633744536632,-1.2836583157594998,0.1177125807556036,0.0,-0.5889154030724998,-0.823689250132365,0.0,-2.6346263778067383
81,0.8823692862098695,1.2919755182736437,-0.24393346899564244,-0.9941673707769105,0.25165104803071014,-0.6771156543856851,-0.2964703846122208,-0.06557053115926248,-0.06172280895447434,0.2788316846503839,0.4194628430975198,0.0,0.0,0.0,0.08633074347119676,0.6119637842767042,0.0,0.0,-1.1862097000482599,1.8845042277961566,0.0,2.5945461878689735
162,-2.5145628858682154,-0.4639597952388792,-0.5256436233060141,0.15340457484371586,-0.27402626404006036,1.2865328877514541,-0.22049933939930705,0.37564655697011057,0.05182472927042035,0.0,-0.40862793805420417,0.0,0.0,0.0,0.0,-0.40862793805420417,0.0,0.0,-0.40862793805420417,0.0,0.0,0.005374854142914054
41,-0.13791677690305956,-0.09622534115350417,0.010977020419663717,0.15482314324582025,0.05043873060380741,0.01342994351624385,0.22291435027114162,0.02109230077616275,0.09226578179063152,-0.2548952662065169,-0.47260252677441217,0.0,0.0,-0.17802447733806673,-0.1801428229832368,-0.36933049265962564,0.0,0.0,-0.3716926974437043,-0.35580509553722617,0.0,-0.968930475070646
82,0.08893591503068438,0.027783722762702072,0.04566503260058928,0.05605298289488745,-0.07700846214064323,0.0726364564092878,0.03111089112598265,0.04624167842159984,0.09858757267679492,-0.18660083297150645,-0.590743054933398,0.0,0.0,0.018746134596923293,-0.5991623954165304,-0.19692762708529427,0.0,0.0,-0.3516060754708379,-0.42573781243406367,0.0,-1.0915374584650626
164,-0.057827523970953705,-0.04142096739467749,-0.1132855213891176,0.10098659400008017,0.1284138121967887,-0.17653408817939115,0.18903643051371172,-0.20137901790609017,0.09253801506157953,-0.24134470468671843,-0.4882995948315941,0.0,0.0,0.0,-0.38536068791248845,-0.34428361160582593,0.0,0.0,-0.2239262586565562,-0.5057180408617565,0.0,-0.8729018450356066
165,-0.0326296638766666,0.2034798998575295,0.36703484061691216,0.5249152586061123,-0.29127052494877037,0.13600172699324312,0.6888388721466209,-0.015258189716457536,0.11909076500389094,-0.49512096610994283,-0.44388661636889554,0.0,0.0,-0.43566617822417375,-0.04238601710664367,-0.4609553871480186,0.0,0.0,-0.8272077525963222,-0.11179982988251161,0.0,-0.5534428224873175
83,-0.47425359460396427,1.0311023984457588,-0.16430508800234356,-0.12391368326589709,-0.7768900190724715,-1.1695835968806485,0.178109977036221,-0.3102534344816692,-0.04186180949752048,0.0,0.33007224811405156,0.0,0.0,-1.885477343899277,1.0536128777668532,1.1619367142464663,0.0,0.0,0.17142669441931677,0.15864555369473496,0.0,-0.30919075379240823
166,1.74650312870581,1.1922780092508052,-0.5153482793050329,0.012560507705134059,0.26523205606531475,-0.2466505695375398,-0.01805411379890994,0.012419820763998743,0.004243321374090571,0.0,-0.03345776597400433,0.0,0.0,0.033879404059109774,-0.04864933509815316,-0.01868783493496207,0.0,0.0,1.2150168827040049,-1.2484746486780036,0.0,-0.8298017912948845
167,-6.485471490808825,0.9298429956446326,1.1365477336402368,-0.0642141339108158,-1.4095807126367605,-0.06116115396970742,0.09229955574570639,-0.012864920114918577,-0.021693486707635514,0.0,0.1710489348876704,0.0,0.0,0.0,-0.07419901409126523,0.24524794897893482,0.0,0.0,-0.05673929705062189,0.22778823193829217,0.0,0.09898058677272481
21,0.08481894343035087,0.1729184342520765,0.6326099784749347,-0.09507862918785395,-0.006303461763814398,0.09627467527506715,0.0007008737650793428,-0.06788883036752086,2.13412390568337,-0.2936988471910368,-0.11286952738055284,0.5772654787695348,0.0,-0.13543569812635825,-0.7470359979989973,-0.10136215721575975,0.5772654787695348,0.0,-0.575612972919982,-0.40822088042114446,0.0,-0.28170240972760924
42,0.00657363491169342,0.47707750783609715,0.3956635194009552,0.7765388368623106,-0.3362871235141502,0.8232888703727347,-0.07130297251535439,0.01670737767770238,0.2127185848525351,-1.2644759572893174,-0.623672901939037,0.0,0.0,-0.26639320071156736,-1.1037926099314668,-0.517963048585314,0.0,0.0,-1.2970792815042853,-0.5910695777240754,0.0,-0.8809107083202086
84,0.08402787755500243,0.269490723665687,-0.12807426928541643,0.11875471029126117,1.4364282803479467,0.11591545598232086,-0.13000580171908402,0.10830721484280821,0.27813591034590557,-1.541399335298794,-0.8401079230702786,0.0,0.0,-0.19448899886486176,-1.1221427274200093,-1.0648755320842025,0.0,0.0,-0.827839263641687,-1.553667994727377,0.0,-2.022234386630453
168,0.4545256976732452,1.6826296564767504,1.2010722574417183,0.298941509434809,1.5054674671535706,-1.167108006715974,-0.08268279940966933,-1.7000408002850926,0.17985933881703797,-1.0128666950586407,-0.546954857444048,0.0,0.0,-0.16522387674861255,0.03189863929268839,-1.42649631504675,0.0,0.0,0.23868559828854807,-1.798507150791236,0.0,-1.5785395849085706
169,2.1466276583527963,-4.621682785816015,2.4827104535017077,-0.14690465905167724,0.25390536096850214,-1.777273631395134,0.21115654672343498,-0.178578791003572,-0.04962886010194202,0.0,0.3913139355850339,0.0,0.0,0.0,1.6432831500233769,-1.251969214438341,0.0,0.0,-2.1922891612864968,2.5836030968715162,0.0,-1.1011386528222054
85,1.9385945081615532,-5.267581140417019,0.4839814759605912,0.20208493807616698,-0.21703325096914305,-1.9320993727075586,0.7361679888753608,0.3380173731831847,-0.25634561945655854,0.47307659225053184,1.5481588947922917,0.0,0.0,-3.5015320523236353,2.7467703012973326,2.775997238069127,0.0,0.0,2.273693709046787,-0.25245822200397416,0.0,-0.03121067987487869
43,-0.3752847509702128,-0.7224923459288147,-0.8212097628099435,-0.24682444784729185,0.9233609362325665,-0.3561979325915339,-0.16497670665151143,-0.010870100448707303,1.0104405768074949,1.93312181466919,0.4457209797799802,0.27872403757117437,0.0,0.0,2.2794241731987688,-0.17930541632076466,0.27872403757117437,0.0,0.9295601824409248,1.170558574437069,0.0,0.44604476966699363
86,1.3562622287291854,3.6319727900413885,-0.9226688775973515,1.1644678053790198,3.654968656044833,1.233322220318876,-0.859916777194632,-0.23419676411384566,-1.246899902370957,0.1792220021480409,-1.5239239101393838,-0.033960610126459505,0.0,0.0,0.0,-1.3107412978648827,-0.033960610126459505,0.0,0.8646821644939158,-2.1754234623587907,0.0,0.034939823669740244
172,-2.785947547132004,-1.694989727232736,-1.9781291846204305,1.1512237081415169,1.1744054439179454,2.056144711689097,-0.7876999653783644,-1.1618967487670453,-2.07986610887512,0.2179258146539755,-1.3750470066091751,-0.03149802076563759,0.0,0.0,0.0,-1.125623171189559,-0.03149802076563759,0.0,-0.5422587647187304,-0.583364406470832,0.0,-0.7345397090070251
87,3.096902678232824,-1.1301209360804494,-0.3937164234964857,0.3852978435791633,-0.464679861433959,0.2967183597875316,0.15902726299793635,0.8470542029616478,0.9748905841307149,0.9278736844838247,0.6553969253915072,0.0901779741659722,0.0,0.0,0.6670008668113524,0.8260917688980124,0.0901779741659722,0.0,0.1255758049269929,1.3675168307823762,0.0,0.3868749712969263
175,1.4274625630471542,0.17315615930172132,-0.33860079853586955,0.23194767944972533,-0.32155393029090534,0.5972385465506981,0.18898594655870884,0.5618987137838787,0.9067435251620628,0.8510926538629849,0.6810693784723476,0.09467574203584413,0.0,0.0,0.6388949771363968,0.7985913131630961,0.09467574203584413,0.0,0.10208816293547508,1.3353981273640136,0.0,1.6567771412307764
11,-0.05685978188370957,0.023288242369906835,0.019666923918273394,0.005887713354671154,-0.010759049512859347,-0.11012726004304524,0.016327569604456853,-0.06166105269102802,-0.05941175534891156,-0.3077136692044087,-0.1052055199467809,-0.04790311869369921,0.0,-0.12779193721517523,-0.1302566613212755,-0.10696747192103963,-0.04790311869369921,0.0,-0.3839873281843419,0.018971257726846817,0.0,-0.10723114117085233
22,0.05303045079016952,-0.021790813586629015,0.010763559615233946,0.026738242038188396,-0.014006999938061506,-0.02332038119608277,-0.10992263471736957,-0.02988018451844285,-0.02369057752885334,-0.15841410723465388,-0.251751606086629,-0.026940876588410625,0.0,-0.12695223000325773,-0.11783267446184631,-0.1384399322677682,-0.026940876588410625,0.0,-0.1805074669829907,-0.20271736974988272,0.0,-0.6489686187825472
44,-0.5975094201192636,0.011925880140453298,0.0022740504722487875,-0.13093097008993743,-0.35054935088124384,0.6182636007595371,-0.4233782825613938,0.09257333700801906,-0.544695605239335,-0.5570951389624047,-0.2275067337293478,0.0,0.0,-0.6048303490124426,0.02091444570087837,-0.2006859693801864,0.0,0.0,-0.5356328779743325,-0.24896899471742218,0.0,-0.7649540746901629
88,0.3127620503713356,0.07010248385376788,0.059154193540500624,-0.31661872585210765,0.7843175616351122,-0.10421429105059926,-0.5316070045058836,0.025578118611415346,-0.3479944784266045,-0.4089894902009992,-0.5761811443151672,0.0,0.0,0.0,-0.2084079532363201,-0.7767626812798402,0.0,0.0,-0.361233852656161,-0.6239367818599991,0.0,-0.7874215201238892
176,0.3271749022696013,0.05857654655865708,0.018139264592855472,-0.18092008750146937,0.8695598764350493,-0.30842297623856585,-0.7489092731751049,-0.015746022436236885,-0.3168203154117894,-0.4261978960392867,-0.9616758858999181,0.0,0.0,0.0,-1.3588186440886545,-0.029055137850554035,0.0,0.0,-0.5649410465623625,-0.8229327353768465,0.0,-1.4172000153575233
177,3.4023776857263397,-0.25421449033516486,-1.2689401734903991,0.03460428991501978,-0.5281863108580538,6.594600240330162,-0.04973921458611984,4.62459188053683,0.011690381191487157,0.0,-0.09217638815667778,0.0,0.0,0.0,-0.09217638815667778,0.0,0.0,0.0,-1.451869675243285,1.3596932870866167,0.0,-0.015176384457147307
89,-0.2245264544877241,0.14604460233483035,-0.3042617509102528,0.010857877091155651,-0.23441378864066487,-0.9247850624496585,-0.01560680135072785,-0.07784141028094103,0.0036681209883989404,0.0,-0.02892242250223025,0.0,0.0,-1.1993128939334228,-0.1154897208973924,1.2858801923285752,0.0,0.0,-0.02892242250223025,0.0,0.0,-0.23452640918562495
178,2.408814787548972,-0.7073834622611614,0.09567523310259096,-0.07927638773588405,2.4132961260084076,-2.146541616018944,0.11394960771889932,-0.6821127526127366,-0.026781973980467614,0.0,0.21117067003968332,0.0,0.0,-0.3352055388974917,-0.041304259259095324,0.5876804681962693,0.0,0.0,0.21117067003968332,0.0,0.0,-0.030084960226559376
179,-3.2956339100498817,0.43140854811022183,0.5711285065323671,0.19527313156978085,-0.8009259798896865,2.0695197192747106,-0.28068000291019324,0.3116945443373008,0.06596920064281711,0.0,-0.5201543512769354,0.0,0.0,0.0,0.16878104072127853,-0.6889353919982132,0.0,0.0,-0.5201543512769354,0.0,0.0,0.5902172394576309
45,0.03028835385013206,0.08995608662095161,-0.07513845965765258,0.014550133121342344,0.09562075161295042,-0.11399050125543025,-0.005099653798287275,-0.15039180090459403,0.10343538031514442,-0.06567073474152196,-0.2649235566616372,-0.02255118522043904,0.0,0.0,-0.18920038457072821,-0.118842721611993,-0.02255118522043904,0.0,-0.11804938155613283,-0.18999372462658987,0.0,-0.3950400445721085
90,0.012970065040922907,0.06607905873064619,0.08373752212880713,0.25736845172415945,-0.024338170034242105,-0.026890139799886924,-0.057278300539572426,-0.1304904278467574,0.14678511305744144,-0.21847586117579668,-0.1910750236746784,-0.06288106257162855,0.0,0.0,-0.17082204024042613,-0.17584778203842039,-0.06288106257162855,0.0,-0.20254951782692698,-0.14412030445192142,0.0,-0.8317531904238137
180,2.2680276031580076,1.2397054252608943,1.316974228872533,0.8112172003985011,2.2352752806806877,-0.5831179670301283,-0.9011135641576337,-1.3177656508613242,0.2117918658241551,0.0,-1.6699377815712562,-0.021171961207098904,0.0,0.0,1.4023932907385557,-3.051159111102704,-0.021171961207098904,0.0,0.3474083509484743,-1.996174171312629,0.0,-1.3674169421277167
181,-0.06759490852277217,-0.06379366479636239,-0.01800644273210596,-0.011818562495858076,-0.07510175559934656,0.044250067890968636,-0.062452034699290775,0.5782423954499544,0.12469111181967577,-0.03660591336637653,-0.1299653742767517,0.0,0.0,0.0,-0.11395077395088041,-0.05262051369224677,0.0,0.0,-0.19557936801065579,0.029008080367527177,0.0,-0.4708699291752554
91,-0.23284928947936662,-1.1343494906732725,0.40648138385737076,-0.5308613116261317,-0.244305953698225,0.8047146524970575,1.166570477738896,-0.013023517109845931,-0.15846831607473527,-0.21692597062946387,0.5741958293404239,-0.2758152468320886,0.0,0.0,0.755836864469149,-0.12275175892609909,-0.2758152468320886,0.0,0.4191406944526389,0.21394441109041168,0.0,-0.10687202155102851
182,-0.4101864216640443,-1.221483835658671,0.3079254836769661,-1.081638004401424,1.32484885003361,0.4559564630249542,1.7414307465619308,-0.32312985590353915,3.952248072876859,0.13239979928296233,0.0033661295906334465,-0.5713570076154887,0.0,0.0,1.3923751983661248,-0.685252261877046,-0.5713570076154887,0.0,0.6372022965111191,0.0699206399779617,0.0,-0.7819141621632618
183,0.1893565860475689,-0.42538732393685513,0.0514445755755045,-0.1948479661424058,0.1231186948877401,0.330258949555141,-0.08831891852028302,0.19620524580091805,-1.2711742864191915,0.29241356214996583,0.13103548928715325,0.058663442535173645,0.0,0.0,0.2844543009146331,0.08033130798731383,0.058663442535173645,0.0,0.432871923682952,-0.06808631478100544,0.0,0.5048594824388286
23,2.1045619175817696,3.2295599521770386,0.5389657174715033,0.3041770477167928,-0.5433508099578204,0.31069347570763933,-0.4372153708604476,-2.6877707260544508,0.10276025447258157,0.0,-0.8102446745056748,0.0,0.0,0.0,0.0,-0.8102446745056748,0.0,0.0,0.0,-0.8102446745056748,0.0,1.6811046494052682
46,2.786653311749376,-8.213180911366559,-4.885476893628082,-0.4237970259816994,0.7570277213659816,-1.000689007102077,0.609153699383203,-1.3994498427834479,-0.143171519881245,0.0,1.1288796638355332,0.0,0.0,0.0,0.0,1.1288796638355332,0.0,0.0,0.0,1.1288796638355332,0.0,-0.43063242355182485
3,0.04763769585978566,-0.2025275128328739,-0.23558593790939183,0.24809241883279481,-0.1673491331667319,-0.10274763088413288,-0.23211513759121258,-0.006184756604763411,0.008435301295700462,-0.20950140116125437,-0.0416499321207237,0.0,0.04211103529892703,-0.12142267706213102,-0.06864572752017352,-0.10319396399859984,0.0,0.0,0.3556204897939662,-0.6067718230759451,0.0,0.35373534121279904
6,-0.010108787422660328,-0.05863238773099551,0.09658482158326358,0.056784400568118,0.0358133851547855,0.11161389619735795,0.023827103923039463,-0.01271697032413194,-0.04495891713209059,0.18062999144095743,0.15388051551240764,0.0,0.0,1.1077481098366941,-0.159374198850636,-0.6138634040326929,0.0,0.0,0.2354113221394472,0.09909918481391747,0.0,-0.2606526414890293
12,0.24452318242342203,-0.3290718578987522,0.11766813563480348,0.11714286495410538,0.12947483570878351,-0.5135170068737137,-0.30569480532178617,0.14744598573389606,-0.03487515164532174,-0.36211626873866,-0.8697273301544343,0.0,0.0,0.0,-0.7373985116801784,-0.4944450872129156,0.0,0.0,-0.4760447557634142,-0.7557988431296782,0.0,-0.5886628793968152
24,-0.15060374257804493,0.14290125390284325,0.4736214184951498,-0.22367317856343152,-0.7572146170220443,0.2812909767973112,-0.23671397521342594,-0.4552287676191869,0.13407718961719703,-1.012030593465667,0.04609229840078331,0.0,0.0,0.0,-0.453913255133478,-0.512025039931398,0.0,0.0,-0.14725370269019364,-0.818684592374687,0.0,-0.8663650891281159
48,-0.41618757439398824,0.3231244192393724,0.6502195636583543,-1.538366443453571,-1.2610237796149688,0.2888732547894348,0.21629883149202742,-0.634146680444549,0.41859257845502734,-0.22314785651087024,-0.3745469774509892,0.0,0.0,0.0,-0.7403076008986472,0.1426127669367895,0.0,0.0,0.13809801843322977,-0.7357928523950892,0.0,-1.296957349007452
96,-0.0588260133036255,-0.3165364645075837,-0.4661730387684973,-0.021937687559236994,-1.1571770104270904,-0.7557015794229713,0.9086795334505527,-0.4106836044068672,0.12429715492040184,-0.7632212914368005,-0.9680700092912997,0.0,0.0,0.0,-0.5067122952525517,-1.224579005475554,0.0,0.0,-0.07938806851259794,-1.6519032322155067,0.0,-1.8872681269110598
192,-1.3811894887407012,-0.9740823284710387,-0.33956031400462283,-0.011466399941086867,-1.3663005839064144,0.6232476711193095,0.6112656031428422,-0.3674448551161262,0.17156490970794358,-0.5324713432218489,-0.7174293788071626,0.0,0.0,0.0,-0.40442550861243814,-0.8454752134165817,0.0,0.0,-0.6473613592159547,-0.6025393628130674,0.0,-2.598196727366763
193,5.747838982389063,1.3107437292594661,3.0811420896729556,0.8692778839974784,-1.552789225530966,1.4929042390326808,-1.2494751174868637,0.49195471431844917,0.2936684974671012,0.0,-2.3155191407811304,0.0,0.0,0.0,0.0,-2.3155191407811304,0.0,0.0,-2.3155191407811304,0.0,0.0,0.09061357980575035
97,0.16945229029701855,0.0885979675810817,-0.6009348713920357,-0.8601854484792015,0.2551500866442649,0.9190529629120642,-0.95543404188927,0.0009688482156940279,-0.02435938739757091,0.3946657667799218,-0.3992259153518455,0.0,0.0,0.0,0.0,-0.004560148571925253,0.0,0.0,-0.3992259153518455,0.3946657667799218,0.0,-0.04017206398947104
194,-0.2915745767032428,-0.5916652028754411,0.3079234791677124,-0.004721016675847282,-0.13250290866417092,0.35254605793054117,-0.034409811595635276,0.09112324660846535,0.22850696886199787,-0.08159687888775052,-0.34729955314326333,0.0,0.0,0.0,0.0,-0.4288964320310135,0.0,0.0,-0.34729955314326333,-0.08159687888775052,0.0,-1.194522501833477
49,1.31640445613136,-1.3136976489043826,0.37541568544859055,0.45112606723460996,-0.43686074041118766,-0.36846117119856475,-1.208270312616639,0.1568558775185805,-0.14148735153389433,-0.26985889937131735,-0.46842610159969694,0.0,0.0,0.0,0.0,-0.7382850009710137,0.0,0.0,0.20189921480590992,-0.9401842157769196,0.0,0.2755273053167686
98,-0.2908302489373954,-0.9442002976177263,-0.9276756415901727,-0.08304399308107979,-2.6588906271871413,0.5039301460564821,-0.9565906887270984,0.32481039328724215,0.13901099554607013,-0.8095660757738526,-0.7192426964384566,0.0,0.0,0.0,0.0,-1.528808772212315,0.0,0.0,-0.9682935802107843,-0.5605151920015248,0.0,-0.8057492132049999
197,0.7548069324473512,1.2766519296725753,-0.17416433905189438,-1.2921173850494245,-0.4800161578036222,-0.2082695930929715,-0.2605182569662556,-0.02951942459973953,-0.15316175313025393,0.13894122913373705,0.0,0.0,0.0,0.0,0.0,0.13894122913373705,0.0,0.0,0.39741688481792237,-0.258475655684184,0.0,0.03442718887397461
99,0.6966025038652087,1.1336070635998814,-1.5935877225038766,0.8218606463279783,1.466841915384438,-0.6280203316948342,-0.09722854447730106,-0.2101953022438623,-0.12037002616090409,0.2613589647201895,0.7279825975864488,0.0,0.0,0.0,0.0,0.9893415623066338,0.0,0.0,1.2483053042905565,-0.25896374198390765,0.0,0.6319949105806861
199,-0.817410949294643,0.7002488896197737,0.44845952816836476,-1.5518236810712918,-0.6301466027681312,-0.4121580746959795,0.19243571242407176,-0.18305881909354094,0.11004108818941764,0.11285365061715626,0.7487626469055105,0.0,0.0,0.0,0.0,0.861616297522671,0.0,0.0,1.1805013957129917,-0.318885098190324,0.0,0.9424074746931492
25,0.20344952563446553,0.13129469406759062,0.03843964079184074,-0.14711007619486943,-0.0008601087639883104,0.0008581539829253292,-0.49239091650138395,0.21632310621651502,-0.15269025874548792,0.04932324323109303,-0.7411080283159194,0.0,0.0,0.0,0.0,-0.6917847850848292,0.0,0.0,-0.9232941015366232,0.231509316451797,0.0,-0.5889639193082136
50,1.0468457315005952,-6.832986748006572,1.5423498016027328,0.09858912975583527,-0.2665958011054583,0.5959144320423038,0.7454116889132043,0.08446288718063949,-0.7040769318383682,-0.3975476324550618,0.0,0.0,0.0,0.0,0.0,-0.3975476324550618,0.0,0.0,0.5543981526896311,-0.9519457851446936,0.0,-0.4075204721327257
51,0.2194228701920115,0.22436559004276968,0.03983402351283553,-0.003372043170142102,0.006073536686909026,-0.043455329567799066,-0.4014167538665573,0.13609116460001341,0.49945543884478466,0.03816755268943692,-0.6112789163128708,0.0,0.0,0.0,0.0,-0.5731113636234323,0.0,0.0,-0.49091220179482115,-0.08219916182860912,0.0,-0.2705083226312929
102,-0.03776047785589786,-3.348167837726305,3.2920038144692483,-1.2598709014104794,-1.0462913975272976,2.5151197132377088,2.428590284071161,0.37591856236258736,0.24230744241565813,-1.4327384559459724,-0.47780872806047175,0.0,0.0,0.0,0.0,-1.9105471840064394,0.0,0.0,-0.035437986957452455,-1.8751091970489833,0.0,-1.1953073012470914
205,3.141772375018177,4.234247100526263,-1.2075291812063167,-7.2727579725353015,4.058774340711152,1.4555596934859425,1.820716450375081,0.20630608618463997,0.12315279554154797,-0.9710359053718574,0.0,0.0,0.0,0.0,0.0,-0.9710359053718574,0.0,0.0,-0.9710359053718574,0.0,0.0,0.16868634190430187
103,0.18191744114222297,-0.21451036696751524,0.24520658040481477,-0.21394031936430297,0.14837298449366443,-0.43304258092305054,-0.3719322763993892,0.14094115496237236,0.3704577584448602,0.042257388109309776,-0.5424271809679947,0.0,0.0,0.0,0.0,-0.50016979285868,0.0,0.0,-0.4228482920681135,-0.07732150079056775,0.0,0.1684557953196627
206,-0.28121239704443773,-0.5783697264399839,0.22154300053317363,-0.7989168761177543,1.0138779817692685,-1.0273705846064622,1.0122029711184741,-0.15522115500802874,0.36720228621271556,-0.26964911315704754,0.938835570294917,0.0,0.0,0.0,0.0,0.6691864571378702,0.0,0.0,-0.2601942590930582,0.9293807162309307,0.0,-0.07149444860982423
207,0.2820431064985309,-0.288991050671961,0.0085599430206518,-0.07491517543773338,-0.0554363140259268,-0.5174208537339587,-0.6388666918610151,0.3946991222020895,0.12947702574064562,0.10745570119895191,-0.8105582556877341,0.0,0.0,0.0,0.0,-0.7031025544887893,0.0,0.0,-0.3226496830585992,-0.38045287143018935,0.0,1.1590673838676242
13,-0.16649181188560622,0.14976311834839898,-0.19972473476562272,0.11860499956673859,-0.8341190887376793,0.0206661574529862,-0.1559663035785289,-0.054708761691915096,-0.0857904074127985,-0.05879508073284254,1.0931477657002122,0.0,0.0,1.3926832785093581,-0.3587827071098433,0.00045211356785559336,0.0,0.0,0.3258327434685688,0.7085199414988022,0.0,-0.18209660049637963
26,0.10392231682871765,0.4479836410940963,0.6280845871854109,0.21728508024870768,-2.352456174658578,0.6550581410606943,-1.0581763675324876,0.25498753478261105,-0.06039670077134897,0.6591335545125875,-1.2008980561616054,0.0,0.0,0.0,-1.026710447277875,0.4849459456288566,0.0,0.0,-0.3246720577762768,-0.2170924438727355,0.0,0.13245475480449728
52,-0.03922055926707588,-0.18858678284680627,0.4014793093718769,0.25326949902824125,-0.8233901165111506,0.4057227828175457,-0.4735057902756584,0.028007461916686346,-0.09744024036270074,0.6573450567253273,-1.5237217574650417,0.0,0.0,0.0,-1.5635190929394225,0.6971423921996955,0.0,0.0,-0.23807205549230515,-0.6283046452474188,0.0,-1.4428858474276782
104,-0.3907875682929915,0.48423311043073447,1.089242908185909,-2.0419413175144006,-2.523863985344844,0.6501851172031038,0.44656209639193123,-0.31293477783480145,-0.5977267389909282,-0.6229572660013354,-1.3370758641638767,0.0,0.0,0.0,-1.3624357673606684,-0.5975973628045275,0.0,0.0,-1.6920692040594854,-0.26796392610571407,0.0,-0.45173750103681387
105,0.07263275096439682,0.07498630778863487,-0.02156435746968848,0.2765947246761709,-0.3954594343752044,-2.3225654545918855,1.8657330459389825,-0.03091163523076674,1.161596144796393,-0.962585074324948,-0.22664039255028415,0.0,0.0,0.0,-0.962585074324948,-0.22664039255028415,0.0,0.0,0.9396281399396025,-2.128853606814834,0.0,-0.7948718249648965
210,0.9663917363753797,-0.5157791715483081,-5.297234603215328,1.0523687175459149,-0.8415239816409728,-2.594418295405505,-0.7343492962688646,0.38654923588239914,-2.8033744749092513,-0.554031975520921,-1.2653675108322708,0.0,0.0,0.0,-0.554031975520921,-1.2653675108322708,0.0,0.0,0.04989903092744245,-1.8692985172806273,0.0,-0.5301569440419711
211,-0.4491442934920569,0.001873122135801078,4.987164598845048,-0.6075087674583375,-0.9843515919867809,0.15422030788839827,0.21774546366109335,-0.46631682642254574,0.6716284590204169,-0.5772758441153297,-0.927781023443685,0.0,0.0,0.0,-0.5772758441153297,-0.927781023443685,0.0,0.0,-1.1463781168193503,-0.35867875073966243,0.0,-0.14081586613747982
53,0.6260707981720907,-0.9691376264116945,2.669653546664459,-1.2486985003677376,-0.6388173168724259,0.34078603546877934,0.2818427807046823,0.7037572470990504,0.00310321987231105,-0.12219081682384338,0.0977225300502719,0.0,0.0,0.0,2.388740093014817,-2.4132083797883825,0.0,0.0,-0.024468286773569933,0.0,0.0,0.14722591316082012
107,-1.0217129683245547,1.5498892917472924,0.42890327083183133,-1.1605327299444514,-0.07078392222329782,-0.1149167112002046,-0.43608656225954584,1.3015494783708321,-0.061801105490900426,0.2894983433551076,0.19779138611832198,0.0,0.0,0.0,0.9701397589449586,-0.48285002947153344,0.0,0.0,0.4872897294734295,0.0,0.0,1.1289987999373148
214,8.291569006475376,-0.10008342493753276,0.18040038008071171,-0.04786855983044361,0.0855075060745621,-0.19113263114605422,-0.23908213952920448,-0.027090489830395328,-0.01617145483636977,0.12750878466998786,0.0,0.0,0.0,0.0,0.0,0.12750878466998786,0.0,0.0,0.12750878466998786,0.0,0.0,-0.0015671884732553765
27,0.4835384471993038,0.045274340008211754,-0.1821602344027909,0.0384552151340411,-0.7690663977529695,-0.05471075987459797,0.2263974497321853,-0.020308845583082036,0.15421885052130535,0.22736332657352648,0.4774430369181685,0.0,0.0,1.2567890764023235,0.3313720645640795,-0.883354777474707,0.0,0.0,0.08615944657128947,0.6186469169204042,0.0,1.4920680635202586
54,0.21594708517636196,0.06786500877736841,0.1649538002542355,0.22850717299527798,0.811799039282543,0.39029493531946374,0.4952735163436991,-0.08892925501787813,0.14768947350478986,0.10819555844488164,-0.2706724810998758,0.0,0.0,0.0,0.7145680987201083,-0.8770450213751046,0.0,0.0,-0.21030129999627178,0.04782437734127552,0.0,0.1458714864960042
108,0.2851070895731552,0.6744392320784074,-0.9155036770712204,-0.021543599029812614,1.7224319452146148,-0.16266968540254317,0.779142885055391,0.016974997229641978,-1.3452836626343974,-0.4579953205951245,0.19593841201479278,0.0,0.0,0.0,0.5718368343434663,-0.8338937429237997,0.0,0.0,-0.8585675258545895,0.5965106172742659,0.0,-0.7051903816750867
217,-0.316940588785192,0.24624330714450357,-0.1488427319579212,-0.26832585393797037,0.09454508347817503,-0.7474753254017855,0.3314985007051823,0.036939896834872886,-0.7856563072861975,-0.1073258259579146,0.24139681635520116,0.0,0.0,0.0,-0.1073258259579146,0.24139681635520116,0.0,0.0,0.24139681635520116,-0.1073258259579146,0.0,0.5331303871187171
109,0.374444225148839,-0.2643948869087962,0.17210872992279408,-0.20246031909567697,-0.7964274230633756,0.599766436219382,-0.635503474391719,-0.8993270507511704,0.030265287882483914,0.6129571385740357,-0.4763536458991382,0.0,0.0,0.0,0.5572712035805213,-0.4206677109056235,0.0,0.0,0.43801606695525724,-0.30141257428036616,0.0,0.141138600981231
218,0.7699833993065319,2.298335266201213,-0.11617063894950283,-1.3199742942868635,0.002586506487511369,-0.004590068619445934,0.4922008601424346,-1.0812595642929426,-0.18058034567536746,-0.21274796520107955,0.17289023715169222,0.0,0.0,0.0,-0.3458259027666666,0.3059681747172753,0.0,0.0,0.17289023715169222,-0.21274796520107955,0.0,2.9980767213619557
219,0.04149712990713438,-0.12192013190943943,0.5513690364268707,0.7798817584728912,-0.5783108833817937,1.2696875893102826,-0.46712561919942513,-0.44850841998360813,-0.022260176951710967,0.37371706336083593,-0.4291496938514296,0.0,0.0,0.0,0.37371706336083593,-0.4291496938514296,0.0,0.0,0.20922630219005137,-0.2646589326806418,0.0,0.8485516433644352
55,0.40396534001668416,-2.8408471823201844,1.0231932049966603,0.8723750153987551,-2.592782850277546,-0.9408481361236751,-0.45644814313757726,0.13773998785103603,0.3532339190320363,1.0014078029962779,1.6736819380502779,0.0,0.0,2.110712922197185,-0.7690066967182668,1.3333835155676672,0.0,0.0,1.9847930810398244,0.6902966600067514,0.0,0.32640883558593203
7,-0.04290113192763748,-0.07468033929942179,-0.14621674030526136,0.01802206724355235,-0.13298665183710187,-0.3367933004735263,-0.10857107817667208,-0.2763527983249314,0.04280854232078268,-0.09774430166033624,0.19769711277383176,0.0,0.08236247811028413,-0.21855300570103103,0.01813406098081016,0.21800927772343243,0.0,0.0,0.2021970722146999,-0.10224426110120481,0.0,0.9668814699986483
14,-0.14099697118741847,-0.03697765200435765,0.25926480020731235,0.10622655634527213,0.1259058128148461,-0.24651912996301903,0.173521648234445,-0.21391415485607365,0.34869731089577755,-0.31402092528716696,1.1887884880876987,0.0,0.2898827328828526,0.019468460007371197,0.42170216599783034,0.14371420391247217,0.0,0.0,-0.0014768293992494335,0.8762443921997809,0.0,0.05830765520440201
28,-0.9035847976870068,-2.7781092150323974,0.041817547791643234,-1.3369769744732778,3.697937047317857,1.1403703088821202,1.3246434152714308,-0.3881782537756061,-5.930630368086158,-0.43564451835603796,1.6399743882928712,0.0,0.0,2.2464866464839495,-1.2030866712889194,0.16092989474181899,0.0,0.0,1.2043298699368294,0.0,0.0,0.14708670760914722
29,0.017337688784378993,-0.11521999520945422,0.1027577224719242,0.2632945890463784,-0.0534670434420505,-0.22820594753869133,0.46022711022527213,-0.19716505172033072,0.25123640722716617,0.17525915277557483,0.4392827095851295,0.0,0.29950256074540305,-0.30343026661964756,0.36802817737912497,0.2504413908558177,0.0,0.0,0.09294328730198402,0.5215985750587172,0.0,0.6083066350049493
58,0.540277686643188,0.008727225742634988,-0.1908938941869355,0.4212598578516085,0.2877638496366993,0.17801302136568453,-0.36776246605062457,0.14288752286222686,-0.9180654210447845,0.10135646372637709,-0.32934320378936527,0.0,0.0,0.5554837405856704,-0.14218583166415716,-0.6412846489845047,0.0,0.0,-0.22798674006298855,0.0,0.0,0.16112742161703905
116,-1.1263493107951585,-0.5812105599182237,0.5357941687231601,1.2863388457834337,0.2999702319691476,-0.545262936870006,1.2666302602516788,-0.2688158822713797,0.2966699751712054,-0.5836621574195111,0.3192111175853312,0.0,0.0,0.3192111175853312,0.03834278520333544,-0.6220049426228488,0.0,0.0,-0.26445103983418317,0.0,0.0,-0.36684675253980314
232,2.074866821430202,1.706979960355665,-0.9169394364101103,-0.2373930371048554,2.3607781753848953,0.20771090413950963,-0.19095965099372852,-0.895468107392038,-2.6158063376130123,0.34777033788041795,0.8545415636083702,0.0,0.0,0.8545415636083702,0.8762853596427165,-0.5285150217623031,0.0,0.0,1.202311901488785,0.0,0.0,-1.2838276542221567
233,0.7344751633055208,-2.5505789155268483,1.6236662789462548,0.5142804259979865,-1.335686270249728,-0.18603375266531683,-0.6436198827821505,-0.38259597182501826,2.56868331395721,0.18934064610203705,-0.5348343563245832,0.0,0.0,-0.5348343563245832,2.9915066321070594,-2.8021659860050145,0.0,0.0,-0.34549371022254954,0.0,0.0,0.3958151849448497
117,0.33831967076527086,0.08750820139146956,-0.038051909054797335,-0.39215966404647196,0.09560941037372497,1.6513379004550177,-1.7177881555080556,0.46447186940520235,-1.0315020206930328,0.7211860970603765,-0.6774280268384486,0.0,0.0,0.7036700252623638,-0.1855842190705822,-0.4743277359698551,0.0,0.0,0.04375807022192765,0.0,0.0,0.4049531698113533
235,0.7475753438723998,-0.33888643144178665,-0.27537979475427665,-0.3012295139128622,-0.01234679353190836,0.05939222929451604,-0.8494641245050082,0.8631811701794058,-0.08387946912530811,0.38756233005396373,-0.22752606242385315,0.0,0.0,-0.4986130898485597,0.05576044957322924,0.6028889079054427,0.0,0.0,0.160036267630115,0.0,0.0,1.31215501282661
59,-0.3713487800150193,-0.23089681152046532,-0.4463615151703966,-0.748324276448499,-0.43555292618248975,-0.11103945554805036,-0.1698382199760797,-0.4891792972907641,0.209270180777355,0.5863274100342395,0.5411907435888031,0.0,0.45125225840101063,-0.4175239873655614,0.2627547159590239,0.8310351666285729,0.0,0.0,0.9356339328311574,0.19188422079187795,0.0,1.348801778325239
118,-0.20263280412716173,-0.09112588768137782,-0.26761178105595285,-0.9066413911457893,0.3416651786949985,-0.9709807385805739,0.25686292630420016,-0.13505940219229887,-0.2929140800812059,0.04892101537232857,0.4129103546947457,0.0,0.686585427054538,-0.9224095660598272,0.7991747378958928,-0.10151922882353306,0.0,0.0,0.5456857488281661,-0.08385437876109234,0.0,-0.04455028368721095
236,0.38042502896417846,-0.42449671514699133,0.15767820545582859,-0.8897189198388457,3.0149412829607063,0.36254792694535437,2.0922959899867304,0.3543546572794967,2.7431731102023633,-2.7967409359097033,1.3627202649937595,0.0,0.0,-1.3278436897777628,-0.20784100607177075,0.10166402493358791,0.0,0.0,-1.2527947820973169,-0.18122588881862697,0.0,0.006551246555593693
237,-0.14525435562046246,-0.18785182352443014,-0.2767857331155719,0.7206855012256898,-0.28292857174522473,-0.41467460886261387,0.771790106237131,-0.13005880356487348,-0.28292310343944127,0.4325964579507756,-0.011785202429046517,0.0,0.5049924436602131,0.0,-0.03861986377478244,-0.0455613243637051,0.0,0.0,0.3733950924326746,0.04741616308905408,0.0,0.7375448692572989
119,0.44031653542432475,1.6467356771809702,-0.9205694869650441,0.708128213064606,-1.0054689648186732,-0.3796860259486244,-0.086937270337992,-0.8729418822508469,1.2146133009534643,0.6103740892656395,0.8057348427247991,0.0,0.0,0.26970777204598534,-1.2105852780074278,2.356986437951875,0.0,0.0,0.8587913163779961,0.5573176156124484,0.0,1.8771937360490718
238,-1.3415599011428532,-2.3738605319051085,-0.42474295697118036,-0.023451861365468413,2.320665827254264,-0.5919040835790877,0.06305576963098249,-1.6365960952459264,-2.2197286693211447,0.05812752488672591,0.3188351242069423,0.0,0.0,1.431568228665712,-2.586675066926015,1.5320694873540028,0.0,0.0,0.15799096832587195,0.21897168076779988,0.0,0.1021761478126344
239,1.4175831031019168,0.15529867728642005,-1.072384224066197,0.709092382908271,-1.4545314322317118,-0.3515003949533182,0.136999065417681,-0.30518283115845996,1.0873669117043092,0.6308192706518677,0.8933380301296567,0.0,0.0,0.21384586293603258,1.3405008975870862,-0.030189459741583383,0.0,0.0,1.7010719627872444,-0.17691466200571743,0.0,1.7846929296668428
15,0.6369538578976991,0.09721926152098774,-0.12135218984199313,0.08080735892520828,-0.13981353439478067,-0.05330568895722904,-0.3288254659348934,-2.007682536378272e-05,0.016600349448051162,0.21523129230346738,-0.21513679524497198,0.0,0.0,-0.21513679524497198,-0.0027979522644442467,0.2180292445679104,0.0,0.0,0.24123413120229117,-0.24113963414379616,0.0,0.8067826056009295
30,0.19290192683249788,1.3792424470672469,-2.0838018740051347,0.050188736343391806,2.5767586284857096,0.592158140413641,-0.12820264490923436,0.15604833884838834,0.6413909242294452,-0.11104442448662123,-0.6234396753174273,0.0,0.0,-0.6234396753174273,1.3361756746325788,-1.4472200991192026,0.0,0.0,-1.31281117597222,0.5783270761681782,0.0,-0.3887225716508862
31,0.5063526547287298,0.04352658935564795,-0.08737208647027359,0.0482728251385694,-0.14367063446864725,-0.18812732966047346,-0.1997096659640113,-0.043055798528806415,0.02275396436754318,0.20265386775119076,0.0,0.0,0.0,0.0,0.0010216336890415602,0.20163223406215125,0.0,0.0,0.3043313509107825,-0.1016774831595883,0.0,1.451808977310541
62,-0.12178085806190077,0.18351794198389776,0.08822046327519187,-0.06158103286637947,0.0866023676310429,-0.22672460574673137,-0.21179305599512055,-0.06518630645668895,-0.03554298932508172,0.3068171437820198,0.0,0.0,0.0,0.0,0.14503104277104448,0.16178610101097443,0.0,0.0,0.07176400424764996,0.23505313953437051,0.0,1.415457708699737
124,0.1312695149928565,0.026623199979987796,0.13493880713110987,0.22020832533222737,0.028537455608354936,-0.15792374058411332,-0.1327726274818438,-0.05219424474900327,-0.012347153414449316,0.2456664592031904,0.0,0.0,0.0,0.0,0.23130793301917557,0.014358526184015051,0.0,0.0,-0.029321028139444046,0.27498748734263473,0.0,0.8850469134046852
248,-0.22344254890874998,-0.6643003340830737,-0.2785571095446312,-0.05923777211445462,-0.46989958594326625,0.2986176120090018,0.5490587246442346,-0.03846255024591642,0.5104529156234471,0.1810344909918362,0.0,0.0,0.0,0.0,-0.5359938392676618,0.7170283302594997,0.0,0.0,0.1810344909918362,0.0,0.0,-0.13579670516704612
249,0.1185827615383095,-0.011805070614125784,-0.0031652353420558053,-0.8485275339366778,0.034352043860745626,-0.511390628136024,-0.6396833694844918,-0.07248277035590116,-0.03965606449044315,0.3411599426757175,0.0,0.0,0.0,0.0,0.1773140490177823,0.1638458936579361,0.0,0.0,0.156810391021963,0.18434955165375233,0.0,0.9673159996980435
125,-0.9217860278183226,-3.24757781301474,0.413116632924219,-0.2864880731816683,0.8753345118106197,-1.1099854597966032,-1.3884478907826676,-0.15732556827268718,0.693374216092961,0.7404957287061678,0.0,0.0,0.0,0.0,0.0,0.7404957287061678,0.0,0.0,0.7404957287061678,0.0,0.0,1.2917148212436644
250,-0.29350457047867723,-1.1109843576648075,3.3754290332874204,-0.4749888438107095,-5.827416769104746,0.43002102565036904,0.5379005470628951,0.06094971932519234,-0.11133918708429887,-0.28687649008149363,0.0,0.0,0.0,0.0,0.0,-0.28687649008149363,0.0,0.0,-0.28687649008149363,0.0,0.0,-0.32084249447726343
251,0.01672233961237931,0.5948063337710141,0.4637815856909222,1.152909344891297,0.03533263773820686,-0.6767926427092085,-0.8465798438828395,-0.0959262900042951,0.12542783422268647,0.4515032667524848,0.0,0.0,0.0,0.0,0.0,0.4515032667524848,0.0,0.0,0.4515032667524848,0.0,0.0,3.1895179116830015
63,0.28605045832700404,-0.6258226219080143,0.025028285724353776,0.3512128165197343,-0.23998721228838857,-0.26449696918824905,-0.33085141408530294,-0.0374889018740569,-0.010219466575631542,0.17645174917472609,0.0,0.0,0.0,0.0,1.0453281084234687,-0.8688763592487502,0.0,0.0,0.6925491294368226,-0.5160973802620954,0.0,0.8296429011915105
126,0.2872750310282391,-0.8681489689535818,0.007366978447846241,-2.5574164879574237,1.2909595996737233,0.17872067668803748,0.22355639382179704,0.025331261570919448,-0.7147052000056794,-0.11922849668969453,0.0,0.0,0.0,0.0,0.0,-0.11922849668969453,0.0,0.0,0.3253073527008461,-0.4445358493905353,0.0,-0.13835773562458265
127,0.027784574153247924,-0.42278750269652177,0.018501700674432447,0.5804414114712767,-0.3148804806795888,-0.3045727465294108,-0.38098101536045215,-0.04316910641054093,0.09082813563880249,0.2031871822236874,0.0,0.0,0.0,0.0,0.8143350921959516,-0.6111479099722678,0.0,0.0,-0.20778776371521718,0.4109749459389017,0.0,1.7805494938407294
254,0.21232480915151236,0.8822494303763976,-0.7084047221562535,-0.4891504098845024,-0.24650114949468194,-0.024329384154981298,-0.03043290505824713,-0.0034483642593015266,-2.2751140414045157,0.01623066760903014,0.0,0.0,0.0,0.0,0.0,0.01623066760903014,0.0,0.0,0.01623066760903014,0.0,0.0,-0.7842742754275489
255,-0.5990171884982104,0.9732591124669505,-0.2765900329614739,-0.11448894688573887,-0.5868604055227498,-0.4681819679047073,-0.5856349379197121,-0.06635852164147274,0.07110159371599556,0.31233449450248085,0.0,0.0,0.0,0.0,-0.5092273725712579,0.8215618670737372,0.0,0.0,0.1022482960635582,0.21008619843892584,0.0,2.9823757577875094
